svm_type c_svc
kernel_type linear
nr_class 8
total_sv 60
rho -21.232738966198678 1.7035038290666369 6.8910400372075138 -1.0936993356257838 -1.5543071476242003 3.1485358746721035 4.86558345140564 1.9771335254298779 4.8170981955689793 1.4874242965204878 -2.7484924084345828 2.2721737977832981 3.0781019590703611 -0.51335977868796634 14.035796584271328 -1.5255333285794439 4.5400629180896406 0.70951174046293719 -6.3433401750855944 -1.9217268081371646 6.8368524369049037 -1.6275776638744752 3.2265920263355503 2.2881541372313805 3.1136686309779376 12.643906208979139 -0.08148233700126517 -6.075955176389467
label 1 2 3 4 5 6 7 8
nr_sv 11 8 12 14 4 7 2 2
SV
1 0 0 0 0 0 0 1:217.70372 2:8.0531693 3:218.77458 4:7.9942017 5:210.86029 6:8.3275776 7:1 8:0 9:0 10:0 11:0 12:0 
1 0 0 0 0 0 0 1:212.32089 2:10.828962 3:214.32603 4:10.035797 5:206.49486 6:9.0915346 7:1.1172752 8:0.32186106 9:0 10:0 11:0 12:0 
0 0 0 0 0.025305714375363671 0 0 1:178.54887 2:13.085874 3:180.76759 4:12.700792 5:172.75047 6:11.188715 7:1.00878 8:0.093311153 9:0 10:0 11:0 12:0 
0 0.0083591107258214128 0 0.014665524689183964 0 0 0 1:191.15225 2:9.7701626 3:193.04517 4:9.7110291 5:181.50195 6:9.0026712 7:1 8:0 9:0 10:0 11:0 12:0 
0.98449134291711915 0 0 0 0 0 0 1:182.88092 2:11.983643 3:189.21373 4:11.000342 5:187.37199 6:9.7509527 7:1.0134395 8:0.11517597 9:0 10:0 11:0 12:0 
1 0 0 0 0.063029074828583415 0 0 1:205.69522 2:12.272821 3:206.53961 4:12.340923 5:196.5052 6:11.309233 7:1.0250732 8:0.1563618 9:0 10:0 11:0 12:0 
1 0 0 0.00026334724010374964 0 0 0 1:230.91399 2:6.8367906 3:229.47404 4:7.097661 5:218.97014 6:7.329988 7:1.0827887 8:0.27561256 9:0 10:0 11:0 12:0 
0.56842849906041704 0 0 0 0 0 0 1:191.74232 2:8.8589764 3:200.31825 4:8.1666784 5:200.74718 6:8.2199001 7:1 8:0 9:0 10:0 11:0 12:0 
1 0 0 0 0 0 0 1:216.89368 2:9.3040161 3:214.56111 4:7.8761253 5:205.29544 6:7.8396788 7:1.0404003 8:0.1969327 9:0 10:0 11:0 12:0 
0.78227235588179311 0 0 0 0 0 0 1:206.32191 2:9.5452366 3:207.76805 4:9.7591715 5:200.94801 6:8.2782936 7:1.0039401 8:0.062671214 9:0 10:0 11:0 12:0 
0 0.00023898839322059319 0.0016004810675809829 0 0 0.00014619693461561062 0.00033942691885004356 1:138.08432 2:8.3175449 3:142.33578 4:8.6267729 5:141.51917 6:7.6207733 7:1 8:0 9:0 10:0 11:0 12:0 
-1 0.0054213644242956912 0.00026108883559157741 0.0070421512277611866 0 5.1281616570187903e-05 8.2953842265142414e-05 1:188.47728 2:7.7472186 3:189.10938 4:7.4251676 5:183.42755 6:7.2284708 7:1 8:0 9:0 10:0 11:0 12:0 
-1 0 0 0 0 0 0 1:213.01892 2:9.389514 3:215.02785 4:8.616806 5:209.7361 6:8.5173025 7:1.047917 8:0.21359946 9:0 10:0 11:0 12:0 
-0.79825975662716264 0 0 0 0 0 0 1:211.82562 2:11.162408 3:213.49875 4:10.751906 5:208.8875 6:8.4738407 7:1.1955421 8:0.39681846 9:0 10:0 11:0 12:0 
-1 0.00046839020915839 0 0.0016008060244413693 0.12673865717771482 0 0 1:196.19815 2:14.712273 3:197.92563 4:14.306387 5:189.10931 6:12.689784 7:1.0059005 8:0.076592863 9:0 10:0 11:0 12:0 
-0.53693244123216577 0 0 0 0 0 0 1:216.76965 2:10.263175 3:218.35863 4:9.5406046 5:212.88959 6:8.6920214 7:1.1218953 8:0.32722738 9:0 10:0 11:0 12:0 
-1 0 0 0 0 0 0 1:215.06195 2:8.1150427 3:217.55753 4:8.4909763 5:212.4646 6:6.8560491 7:1.141593 8:0.349406 9:0 10:0 11:0 12:0 
-1 0 0 0 0 0 0 1:211.47234 2:9.4165621 3:212.81197 4:8.1940928 5:203.79543 6:9.5410967 7:1.0255102 8:0.15768312 9:0 10:0 11:0 12:0 
-1 0 0 0.00036899512368431854 0 0 0 1:224.47235 2:8.3918695 3:225.8154 4:7.4212399 5:214.61678 6:8.4564934 7:1.0298356 8:0.1701386 9:0 10:0 11:0 12:0 
-0 -0 0.32137862869050005 0 0 0 0 1:120.55825 2:13.77134 3:150.58173 4:13.061528 5:91.862915 6:10.26781 7:1 8:0 9:0 10:0 11:0 12:0 
-0 -0 1 0 0 0 0 1:138.00362 2:10.803382 3:165.51581 4:9.2825556 5:95.10157 6:9.882102 7:1 8:0 9:0 10:0 11:0 12:0 
-0 -0 1 0 0 0 0 1:98.950638 2:10.570395 3:134.1295 4:10.470844 5:88.008179 6:9.5224838 7:1.0266153 8:0.16096386 9:0 10:0 11:0 12:0 
-0 -0 0.76171549763528879 0 0 0 0 1:127.53842 2:9.87568 3:152.64835 4:8.6497278 5:103.38699 6:9.0195389 7:1 8:0 9:0 10:0 11:0 12:0 
-0 -0 1 0 0 0 0 1:116.99216 2:12.144102 3:147.41154 4:11.335675 5:89.685326 6:11.53965 7:1 8:0 9:0 10:0 11:0 12:0 
-0.0085980991190420068 -0.0058897546334540814 0 0.30230223217017788 0.014846662394224603 0 0 1:187.84892 2:7.6294827 3:201.78925 4:5.6428289 5:170.15323 6:8.1643066 7:1 8:0 9:0 10:0 11:0 12:0 
-0 -0 1 0 0 0 0 1:139.43089 2:14.242749 3:156.69731 4:12.663975 5:116.7493 6:14.874514 7:1 8:0 9:0 10:0 11:0 12:0 
-0 -0 0.748975477185022 0 0 0 0 1:132.32408 2:13.609769 3:164.31554 4:13.223573 5:115.99524 6:11.98579 7:1 8:0 9:0 10:0 11:0 12:0 
-0 -0 1 0 0 0 0 1:130.1223 2:14.284114 3:159.924 4:13.978393 5:111.09506 6:13.364944 7:1 8:0 9:0 10:0 11:0 12:0 
-0 -0 1 0 0 0.00058919725725286622 0.0014079223432312946 1:93.427963 2:14.109051 3:123.86732 4:17.498432 5:84.867844 6:10.718264 7:1 8:0 9:0 10:0 11:0 12:0 
-0 -0 1 0 0 0 0 1:111.83807 2:10.083073 3:144.10251 4:10.373835 5:93.122475 6:9.0982952 7:1 8:0 9:0 10:0 11:0 12:0 
-0 -0 1 0 0 0 0 1:101.86211 2:12.227411 3:139.21237 4:12.933469 5:91.111504 6:10.356815 7:1 8:0 9:0 10:0 11:0 12:0 
-0 -0 -0 0 0.00013674734271546581 0.0024854485440382506 0.0011155486243077102 1:80.344536 2:9.3947668 3:97.336136 4:11.298925 5:75.890755 6:8.9544897 7:1 8:0 9:0 10:0 11:0 12:0 
-0 -0.00026108883559157741 -1 0.00038752829624297887 0 0 0 1:144.88593 2:13.08297 3:187.27376 4:13.09588 5:108.04562 6:10.91394 7:1.0038023 8:0.061603889 9:0 10:0 11:0 12:0 
-0 -0 -1 0 0 0 0 1:131.17957 2:11.915204 3:151.70403 4:11.871865 5:103.96251 6:11.422432 7:1 8:0 9:0 10:0 11:0 12:0 
-0 -0 -0 0 0.00058620423328240739 0 0 1:87.621513 2:21.820971 3:112.60393 4:27.610447 5:77.099274 6:14.181699 7:1 8:0 9:0 10:0 11:0 12:0 
-0 -0 -1 0 0 0 0 1:107.93234 2:14.011514 3:143.80356 4:13.816504 5:93.804749 6:11.394821 7:1 8:0 9:0 10:0 11:0 12:0 
-0 -0 -1 0 0 0 0 1:111.38136 2:14.034346 3:142.5753 4:14.973567 5:96.349945 6:12.236018 7:1 8:0 9:0 10:0 11:0 12:0 
-0 -0 -1 0 0.0043338714663781796 0 0 1:98.709595 2:13.127188 3:112.30051 4:13.490854 5:81.361115 6:11.732176 7:1 8:0 9:0 10:0 11:0 12:0 
-0 -0 -1 0 0 0 0.00067186268890767284 1:115.32402 2:9.8958645 3:137.8324 4:9.2387104 5:102.27374 6:10.332557 7:1 8:0 9:0 10:0 11:0 12:0 
-0.0016004810675809829 -0 -1 0 0 0 0 1:126.93766 2:10.536705 3:150.42337 4:9.0809422 5:109.13247 6:10.057678 7:1 8:0 9:0 10:0 11:0 12:0 
-0 -0 -0.45777856309712511 0 0 0 0 1:107.51938 2:8.8088207 3:137.00775 4:9.8777657 5:92.705429 6:9.0358686 7:1 8:0 9:0 10:0 11:0 12:0 
-0 -0 -0.48245340457968316 0 0 0 0 1:118.17223 2:8.1578274 3:156.98972 4:9.0971222 5:95.804626 6:7.6826811 7:1 8:0 9:0 10:0 11:0 12:0 
-0 -0 -0.13004744304719712 0 0 0 0 1:114.1405 2:11.312037 3:154.19466 4:12.355742 5:91.369705 6:10.734563 7:1 8:0 9:0 10:0 11:0 12:0 
-0 -0 -1 0 0 0 0 1:116.06018 2:13.911252 3:151.39056 4:14.01082 5:95.98938 6:13.329398 7:1 8:0 9:0 10:0 11:0 12:0 
-0 -0 -0.76179019278681426 0 0 0 0 1:121.06968 2:12.233314 3:161.145 4:13.394109 5:96.309792 6:10.613912 7:1 8:0 9:0 10:0 11:0 12:0 
-0 -0 -0.13161520618453304 -0 0 0 0 1:190.62093 2:5.9194989 3:203.08569 4:5.1892776 5:173.78816 6:6.5531282 7:1.0002741 8:0.016552495 9:0 10:0 11:0 12:0 
-0 -2.0590986060566313e-05 -0 -0 0 0 0 1:187.78656 2:4.3474188 3:203.2991 4:4.3099627 5:176.17142 6:4.7585464 7:1.0139639 8:0.11734342 9:0 10:0 11:0 12:0 
-0.014928871929287716 -0.0089913613898263099 -0.047263142549425187 -0 0.030636474997243205 0 0 1:192.1702 2:8.5345201 3:201.25798 4:7.0741839 5:174.10803 6:7.0928645 7:1.0172623 8:0.13114704 9:0 10:0 11:0 12:0 
-0 -0 -0.12342388343621977 -0.00038752829624297887 0 5.4187705671538397e-05 8.8898764380650601e-05 1:184.45274 2:6.4602423 3:198.0038 4:6.8125095 5:166.09486 6:5.7006655 7:1 8:0 9:0 10:0 11:0 12:0 
-0 -0.0074253338312109101 -0.0063216168275857729 -0 -0.013131084370600314 0 0.0002532669426658965 1:187.92436 2:10.773273 3:188.07642 4:10.682856 5:172.27431 6:11.08453 7:1 8:0 9:0 10:0 11:0 12:0 
-0.033665868867809548 -0.067726959622054689 -0 -0 -0 0 0 1:195.65601 2:19.565071 3:196.84 4:19.765316 5:189.696 6:18.908619 7:2 8:0 9:0 10:0 11:0 12:0 
-0 -0 -0.0080051114164195591 -0.00099183767771203859 -0.015347161331600228 0 0 1:204.00476 2:6.5651298 3:200.57162 4:6.0336342 5:172.71979 6:7.2231941 7:1.0132258 8:0.11424784 9:0 10:0 11:0 12:0 
-0 -0 -0 -0 -0.0017290682947327675 0 0 1:210.27879 2:13.037276 3:209.33333 4:12.642038 5:191.03636 6:12.69381 7:1.769697 8:0.42230844 9:0 10:0 11:0 12:0 
-0 -0 -0.00051993415021927289 -0 -0 0 0 1:154.50252 2:15.63435 3:155.00505 4:15.909394 5:142.15909 6:15.305412 7:1.2853535 8:0.45215392 9:0 10:0 11:0 12:0 
-0.054668920336137516 -0.051586363724449219 -0 -0 -0.00042916100030988174 0 0 1:203.48193 2:10.458476 3:201.02409 4:9.1607189 5:184.54218 6:9.3510838 7:1 8:0 9:0 10:0 11:0 12:0 
-0 -0 -0 -0.0040649853646640127 -0 0.0071994852892000921 0.0010578746411825592 1:76.759743 2:21.600368 3:74.266235 4:22.351337 5:73.383118 6:18.653776 7:2 8:0 9:0 10:0 11:0 12:0 
-0 -0 -0 -0 -0 -0.0071994852892000921 0 1:64.375572 2:17.724733 3:65.67762 4:17.657022 5:72.6875 6:15.164579 7:1.0496963 8:0.21734677 9:0 10:0 11:0 12:0 
-0.00014619693461561062 -5.1281616570187903e-05 -0.00058919725725286622 -0.0024854485440382506 -5.4187705671538397e-05 -0 0.00099683524773373951 1:65.825516 2:8.7910957 3:73.540329 4:11.496036 5:80.555611 6:6.6144733 7:1.0006071 8:0.024640709 9:0 10:0 11:0 12:0 
-0 -0 -0 -0 -0 -0.0013111415838484555 -0.00099683524773373951 1:69.333801 2:7.8546062 3:105.88569 4:11.972148 5:111.1059 6:10.274617 7:1 8:0 9:0 10:0 11:0 12:0 
-0.00033942691885004356 -8.2953842265142414e-05 -0.0014079223432312946 -0.0017874113132153831 -8.8898764380650601e-05 -0 -0 1:73.678635 2:7.8600068 3:112.26329 4:8.6323271 5:112.54546 6:7.2348332 7:1 8:0 9:0 10:0 11:0 12:0 
