svm_type c_svc
kernel_type linear
nr_class 5
total_sv 73
rho 0.13527636412718613 2.8742581937526182 2.0339465395376881 8.6893057274735757 6.9890113725366083 2.1764952138295319 0.099649150087066402 3.1817200542960058 -9.0563153489361472 -2.7656528252495423
label 1 2 3 4 5
nr_sv 23 16 12 13 9
SV
0.18945666398876995 0 0 0 1:119.31833 2:11.799607 3:138.63074 4:11.140719 5:144.74716 6:10.596827 7:1.2278309 8:0.41952828 9:0 10:0 11:0 12:0 13:0.287 
1 0 0 0 1:179.70667 2:12.704889 3:194.64156 4:12.367904 5:199.14188 6:11.804094 7:1.2039691 8:0.40316862 9:31.263159 10:26.133932 11:38.666668 12:23.371737 13:0.26300001 
0.35871346896510475 0 0.00056465744638042935 0.028773536716405236 1:156.83206 2:30.507648 3:175.53197 4:28.720438 5:180.94629 6:32.677887 7:1.4475703 8:0.49745563 9:0 10:0 11:0 12:0 13:0.146 
1 0 0 0 1:152.2924 2:9.0663767 3:161.75797 4:7.549736 5:159.32019 6:7.4667311 7:1.2194546 8:0.41393143 9:24.333334 10:15.502688 11:33 12:0 13:0.19 
0 0.003967246450998249 0 0 1:50.069809 2:11.112455 3:69.965096 4:11.88882 5:93.641113 6:10.805852 7:1.533833 8:0.49890745 9:16.731133 10:14.315947 11:12.666667 12:12.242499 13:0.133 
0.12501300963738579 0 0 0 1:172.75633 2:17.09973 3:174.47469 4:17.330292 5:173.93037 6:17.877224 7:3 8:0 9:10 10:0 11:18 12:0 13:0.043000001 
1 0.0012953004485834114 0.0012902904005360769 0 1:111.66949 2:12.436369 3:108.32552 4:10.860953 5:112.78963 6:10.857849 7:1.387338 8:0.48726341 9:7.3333335 10:4.0414519 11:0 12:0 13:0.384 
1 0 0 0 1:126.69161 2:10.449795 3:143.6391 4:9.6428509 5:144.0266 6:8.7505894 7:1.0775174 8:0.27979645 9:25.25 10:20.204073 11:20.6 12:10.761041 13:0.152 
1 0 0 0 1:126.33619 2:9.6082611 3:145.14964 4:9.377924 5:146.44182 6:8.9172497 7:1.0731306 8:0.260362 9:12 10:0 11:0 12:0 13:0.147 
0.186412081823736 0 0 0.074244827923260634 1:101.70562 2:9.2585144 3:148.92172 4:9.2571459 5:157.05292 6:9.87714 7:1.3252481 8:0.46872592 9:4.3333335 10:4.3665395 11:0 12:0 13:0.38499999 
1 0 0 0 1:144.76494 2:8.7276621 3:158.06641 4:8.0795984 5:158.61128 6:7.9818997 7:1.07261 8:0.25953171 9:0 10:0 11:0 12:0 13:0.21699999 
1 0 0 0 1:131.49892 2:11.159059 3:149.45815 4:10.683207 5:152.5106 6:10.233076 7:1.1900231 8:0.39237571 9:9 10:10.033278 11:12 12:0 13:0.123 
0.40755599806441278 0 0 0 1:112.08652 2:7.1873198 3:143.14642 4:6.8424044 5:154.84299 6:7.01756 7:1.0183028 8:0.13405429 9:0 10:0 11:0 12:0 13:0.235 
1 0 0 0 1:134.28271 2:8.5317831 3:153.70659 4:8.3839111 5:154.6967 6:7.8768497 7:1.0886058 8:0.28419444 9:21.666666 10:16.718706 11:15.25 12:10.372238 13:0.17399999 
0 0 0.0067941697327990264 0 1:96.6772 2:11.602376 3:113.19521 4:10.922312 5:119.07059 6:10.090991 7:1.1825162 8:0.38632646 9:13 10:4.0824828 11:0 12:0 13:0.26800001 
0 0.00043192399489497556 0.0019315597974591853 0.035696028221208251 1:73.775291 2:22.97303 3:100.27775 4:19.792645 5:116.91205 6:14.631863 7:1.2580279 8:0.43756598 9:11.827338 10:11.332222 11:9.333333 12:12.74101 13:0.132 
1 0 0 0.029533017064882525 1:124.00145 2:9.342761 3:143.60553 4:8.9818497 5:143.85378 6:8.4725409 7:1.0494931 8:0.21690205 9:2 10:0 11:0 12:0 13:0.205 
1 0 0 0 1:127.47199 2:12.550155 3:143.98714 4:11.032169 5:142.8495 6:9.8903418 7:1.0785161 8:0.26898831 9:9 10:3.9496834 11:0 12:0 13:0.131 
0.23830789618641116 0 0 0 1:68.600388 2:15.598395 3:96.683212 4:15.065915 5:116.24317 6:13.864296 7:1.2042782 8:0.4031851 9:14.174193 10:17.434906 11:35.333332 12:33.87846 13:0.28400001 
0 0 0 0.0082793536805448546 1:111.92297 2:11.434769 3:129.19096 4:11.160875 5:133.44165 6:9.9036093 7:1.0735701 8:0.26110011 9:20.666666 10:27.983328 11:58 12:0 13:0.19499999 
1 0 0 0 1:156.09007 2:11.086097 3:170.3631 4:9.0016031 5:172.46878 6:8.2968531 7:1.2765765 8:0.47855404 9:13.454545 10:11.622079 11:3.3333333 12:2.5166116 13:0.41 
0.40435148694964895 0 0 0 1:101.55882 2:13.060155 3:120.93531 4:13.083671 5:130.36386 6:12.649771 7:1.4790008 8:0.58015084 9:27.565218 10:28.011627 11:28.947369 12:29.155663 13:0.14 
1 0 0 0 1:128.36386 2:11.125282 3:148.72742 4:10.396649 5:149.90729 6:9.654624 7:1.0747244 8:0.28870884 9:16.833334 10:12.098858 11:9 12:5.6568542 13:0.13699999 
-1 0.0035296592308639765 0.007195317733323432 0.0076396905539048345 1:84.15226 2:13.782266 3:105.21676 4:13.134174 5:117.28524 6:12.395743 7:1.5970745 8:0.49064916 9:9 10:8.1853523 11:0 12:0 13:0.35699999 
-1 0 0.00039603394983397943 0 1:116.91467 2:16.670767 3:133.37865 4:15.105227 5:138.78181 6:14.221909 7:1.2534492 8:0.57481623 9:35 10:26.598871 11:32 12:3.6055512 13:0.122 
-1 0 0 0.038954980466482117 1:103.05099 2:11.655617 3:122.26572 4:11.362068 5:129.92862 6:11.059851 7:1.1932012 8:0.39920443 9:0 10:0 11:0 12:0 13:0.228 
-0.71430496397135979 0 0 0 1:144.62747 2:14.202098 3:160.14702 4:12.252333 5:161.42532 6:12.014694 7:1.0876161 8:0.30266443 9:14.785714 10:13.086567 11:13.75 12:11.26573 13:0.057 
-1 0 0 0 1:132.17554 2:14.608886 3:149.31374 4:13.206923 5:150.28885 6:12.585175 7:1.1451014 8:0.35884413 9:21.25 10:16.820127 11:7 12:8.485281 13:0.035999998 
-1 0 0 0 1:148.36595 2:10.45596 3:163.44263 4:9.2959051 5:164.24934 6:9.2811928 7:1.0762051 8:0.26533809 9:0 10:0 11:0 12:0 13:0.041000001 
-1 0 0 0 1:137.19208 2:9.3462286 3:155.21608 4:8.9291773 5:157.49986 6:8.878231 7:1.2250506 8:0.4346503 9:8 10:0 11:0 12:0 13:0.079000004 
-1 0 0 0 1:136.19579 2:8.9698563 3:153.68886 4:8.0813856 5:154.27843 6:8.6259108 7:1.0987244 8:0.2983743 9:0 10:0 11:0 12:0 13:0.198 
-1 0 0 0 1:122.19943 2:12.699214 3:141.25227 4:11.878402 5:142.55411 6:11.558816 7:1.3562323 8:0.48683995 9:20.142857 10:15.805364 11:17 12:15.556349 13:0.048 
-1 0 0.00048293228977277727 0.0014504906660231191 1:125.71206 2:13.98245 3:142.91672 4:13.290332 5:144.52109 6:12.700319 7:1.3072215 8:0.48809981 9:24.5 10:25.016117 11:31.761906 12:25.502754 13:0.016000001 
-1 0 0 0 1:167.17056 2:3.5061347 3:176.50757 4:3.2671187 5:175.06328 6:3.3708785 7:1 8:0 9:0 10:0 11:0 12:0 13:0.37099999 
-1 0 0 0 1:162.33727 2:3.8993108 3:173.12007 4:3.6676636 5:171.63846 6:3.6873715 7:1 8:0 9:0 10:0 11:0 12:0 13:0.41 
-0.1255026184344081 0 0 0 1:158.86748 2:11.062806 3:170.8582 4:8.6591978 5:169.4998 6:9.0734005 7:1.019682 8:0.13890767 9:83 10:0 11:53 12:0 13:0.046999998 
-0.51074529178925232 0 0 0 1:145.01306 2:13.28087 3:159.76732 4:11.330211 5:159.20111 6:10.967623 7:1.0519658 8:0.22196503 9:15.222222 10:17.071745 11:41 12:0 13:0.092 
-1 0 0 0 1:140.66791 2:12.682951 3:157.7592 4:11.18744 5:159.58205 6:10.534235 7:1.2660018 8:0.44188523 9:27.5 10:16.782928 11:17.333334 12:3.5118847 13:0.037999999 
-0.55925773142044133 0 0 0 1:164.8902 2:10.657382 3:177.29721 4:9.2409191 5:178.44298 6:9.4663324 7:1.148582 8:0.35578564 9:26 10:16.598192 11:21 12:14.142136 13:0.056000002 
-0 -0 0.6590687803298898 0 1:69.463127 2:16.207752 3:108.65209 4:13.043103 5:86.915245 6:13.75852 7:1.5507464 8:0.49745563 9:17.101265 10:18.231836 11:22.518518 12:19.109745 13:0.039000001 
-0 -0 1 0 1:56.952679 2:11.483167 3:101.11158 4:11.743695 5:80.564171 6:10.357074 7:1.6415226 8:0.47959515 9:13.013514 10:11.187935 11:11.473684 12:10.458216 13:0.071000002 
-0.0025538978713103432 -0 0 0 1:46.992973 2:19.318462 3:71.741966 4:16.197794 5:76.006027 6:16.444271 7:2.1134539 8:0.31730607 9:15.17742 10:14.972679 11:16.833334 12:23.642475 13:0.17200001 
-0.00058428215431575482 -0 0.77381970079065621 0 1:59.711483 2:14.886206 3:88.85714 4:13.742589 5:83.705879 6:15.639919 7:1.9971988 8:0.052925613 9:11.375 10:6.9885111 11:7 12:0 13:0.21600001 
-0 -0 0.44752866798526142 0 1:58.090916 2:16.117323 3:96.331528 4:15.243886 5:82.906105 6:14.477783 7:1.7662804 8:0.45914665 9:15.920561 10:14.334785 11:14.679739 12:13.220127 13:0.022 
-0 -0 0.41116686835913724 0 1:52.032768 2:14.334827 3:91.966797 4:14.540459 5:78.534653 6:13.139088 7:1.7041317 8:0.47701341 9:15.757895 10:14.128297 11:12.730159 12:11.016419 13:0.113 
-0 -0 0.58002242789604885 0 1:57.473362 2:13.687039 3:87.788864 4:13.803757 5:81.829529 6:12.509643 7:1.7701675 8:0.42077079 9:16.5 10:15.737734 11:16.25 12:18.367897 13:0.081 
-0.0025562908688505398 -0.0035296592308639765 1 0.0027975737412532487 1:81.796852 2:13.167481 3:110.9384 4:11.764314 5:94.621231 6:12.1465 7:2 8:0 9:11.75 10:7.6321688 11:2 12:0 13:0.048999999 
-0 -0 1 0 1:59.979324 2:13.887001 3:101.40023 4:13.395914 5:80.636421 6:11.62049 7:1.3148274 8:0.46710759 9:13.382971 10:12.802919 11:13.659039 12:13.646847 13:0.014 
-0 -0 0.25077223571605506 0 1:59.101353 2:12.496133 3:105.07737 4:11.174079 5:80.50808 6:11.022595 7:1.2212182 8:0.41939321 9:12.349827 10:11.415732 11:11.477551 12:11.035938 13:0.023 
-0 -0 0.093488115104512576 0 1:64.366837 2:14.642115 3:100.81433 4:13.005263 5:81.862839 6:11.472105 7:1.0993644 8:0.30046499 9:12.304229 10:11.138334 11:10.76845 12:9.6622086 13:0.011 
-0 -0 0.6334794130596485 0 1:47.801247 2:10.58686 3:76.055252 4:11.500153 5:70.442413 6:9.6390867 7:1.1796646 8:0.38391516 9:13.899666 10:12.826668 11:13.486111 12:12.872688 13:0.030999999 
-9.1336640313835463e-05 -0 -0 0 1:117.12805 2:19.091427 3:154.61382 4:18.800411 5:134.60976 6:18.913086 7:3.2093496 8:0.40725845 9:25.157894 10:19.647627 11:18.6 12:18.904438 13:0.039000001 
-0.0010420628569119445 -0.0040313810511753943 -0 0.0096575068380589518 1:103.65644 2:20.391064 3:131.73312 4:19.043091 5:121.22086 6:19.003651 7:2.7239263 8:0.44774091 9:9.8888893 10:7.423686 11:0 12:0 13:0.077 
-0 -0 -1 0 1:58.286797 2:13.7588 3:101.44181 4:13.046339 5:80.326736 6:11.87641 7:1.4112252 8:0.51028919 9:14.065641 10:13.572717 11:13.982965 12:14.822071 13:0.0040000002 
-0.00024252928642152374 -0 -0 0 1:109.75491 2:20.947582 3:136.4375 4:20.648766 5:122.07843 6:20.164263 7:2.947304 8:0.22356309 9:29.620689 10:20.588509 11:21.761906 12:18.422554 13:0.063000001 
-0 -0 -1 0 1:51.078732 2:13.964742 3:78.522751 4:14.279186 5:73.289879 6:13.229281 7:1.9943763 8:0.074789874 9:15.919811 10:13.297478 11:13.177778 12:11.438151 13:0.050000001 
-0 -0 -1 0 1:59.404148 2:12.680337 3:100.8111 4:12.772987 5:79.428268 6:10.789184 7:1.080905 8:0.27599877 9:12.379305 10:11.171406 11:10.931232 12:9.6829796 13:0.018999999 
-0.0069298896010207512 -0.00081800278294260394 -0.129236515612178 0.0048944993160995849 1:97.969925 2:16.125896 3:124.81955 4:15.579627 5:113.77444 6:15.055763 7:2 8:0 9:11 10:0 11:0 12:0 13:0.237 
-0.0022748589925066631 -0.0009353834370318568 -0.078501576002550755 0 1:83.390335 2:17.460892 3:104.31041 4:16.493166 5:99.550186 6:16.529593 7:2 8:0 9:10 10:11.313708 11:10 12:0 13:0.123 
-0 -0.0022895167017803345 -1 0 1:64.804062 2:13.679016 3:89.650215 4:13.660521 5:86.142639 6:14.212689 7:1.9627498 8:0.18940285 9:14.80734 10:10.881923 11:9.6153851 12:7.7463641 13:0.037 
-0 -0 -0.1774919213774741 0 1:70.869843 2:13.819693 3:99.097076 4:13.588274 5:88.652924 6:13.314315 7:1.9910674 8:0.094110169 9:17.25 10:14.898184 11:14.117647 12:11.510225 13:0.079999998 
-0 -0 -1 0 1:56.597095 2:14.039732 3:96.295097 4:13.670164 5:79.481041 6:12.456197 7:1.6183013 8:0.48826158 9:15.289305 10:14.008914 11:14.126118 12:12.931651 13:0.014 
-0 -0 -1 0 1:70.077705 2:12.147424 3:114.02027 4:10.431914 5:90.233109 6:11.942117 7:1.4335586 8:0.49584514 9:10.727273 10:8.989893 11:3 12:2.8284271 13:0.075000003 
-0 -0 -0.46411619624900796 0 1:66.502625 2:11.641123 3:101.39151 4:12.298203 5:85.270775 6:11.285617 7:1.7283465 8:0.44490951 9:12.755102 10:15.083836 11:27.666666 12:17.772638 13:0.075999998 
-0 -0.035584507963237269 -0 -0.0052087155364984213 1:96.628319 2:12.873835 3:120.37168 4:13.201863 5:120.11504 6:12.448287 7:1.9292035 8:0.25762701 9:0 10:0 11:0 12:0 13:0.222 
-0 -0 -0 -0.0070016316173399859 1:104.54385 2:17.040192 3:135.20743 4:16.010715 5:135.08279 6:15.961427 7:1.7990725 8:0.40770108 9:10.272727 10:8.4981279 11:1.5 12:0.70710677 13:0.028000001 
-0.10340172372165062 -0 -0 -0 1:115.26811 2:16.52746 3:151.43478 4:14.127192 5:154.84058 6:14.944866 7:1.9963768 8:0.060192928 9:0 10:0 11:0 12:0 13:0.109 
-0.014272796524063403 -0 -0 -0 1:93.378136 2:17.982233 3:128.91936 4:17.119732 5:133.79073 6:17.274965 7:1.7701187 8:0.47873217 9:24.5 10:27.962475 11:38 12:28.284271 13:0.071000002 
-0 -0 -0.0018177882246156254 -0 1:84.041115 2:16.895615 3:113.47711 4:14.975849 5:118.55314 6:14.419691 7:1.9162141 8:0.27717397 9:3 10:1.4142135 11:0 12:0 13:0.061999999 
-0 -0 -0.00091426775799873525 -0.0023416590003201292 1:83.397858 2:17.699734 3:114.68821 4:16.646973 5:120.76714 6:16.425962 7:1.9652485 8:0.19184273 9:10.333333 10:9.9816494 11:0 12:0 13:0.041000001 
-0.030551653830430202 -0.0012971239441325895 -0 -0 1:88.0755 2:15.83738 3:120.99957 4:15.843887 5:126.75547 6:16.152899 7:1.9738309 8:0.15967199 9:15 10:16.613247 11:9 12:0 13:0.089000002 
-0.025033302784413694 -0.0069366536577487228 -0 -0 1:117.4112 2:14.403458 3:151.98451 4:13.161055 5:153.35637 6:13.269037 7:1.4922527 8:0.50023818 9:0 10:0 11:0 12:0 13:0.075999998 
-0.0032672867457436759 -0.0042268761212915151 -6.5517758638887906e-05 -0 1:84.908424 2:12.591575 3:118.07198 4:11.726895 5:123.76337 6:12.132502 7:1.2651718 8:0.48963451 9:12.619047 10:11.530292 11:13.5 12:13.435029 13:0.041999999 
